digraph Tree {
node [shape=box] ;
0 [label="X[3] <= 3.69\ngini = 0.686\nsamples = 256\nvalue = [51, 117, 64, 9, 8, 6, 1]"] ;
1 [label="X[3] <= 1.455\ngini = 0.466\nsamples = 166\nvalue = [51, 110, 5, 0, 0, 0, 0]"] ;
0 -> 1 [labeldistance=2.5, labelangle=45, headlabel="True"] ;
2 [label="X[0] <= 1.53\ngini = 0.255\nsamples = 60\nvalue = [51, 9, 0, 0, 0, 0, 0]"] ;
1 -> 2 ;
3 [label="gini = 0.0\nsamples = 51\nvalue = [51, 0, 0, 0, 0, 0, 0]"] ;
2 -> 3 ;
4 [label="gini = 0.0\nsamples = 9\nvalue = [0, 9, 0, 0, 0, 0, 0]"] ;
2 -> 4 ;
5 [label="X[0] <= 4.53\ngini = 0.09\nsamples = 106\nvalue = [0, 101, 5, 0, 0, 0, 0]"] ;
1 -> 5 ;
6 [label="gini = 0.0\nsamples = 101\nvalue = [0, 101, 0, 0, 0, 0, 0]"] ;
5 -> 6 ;
7 [label="gini = 0.0\nsamples = 5\nvalue = [0, 0, 5, 0, 0, 0, 0]"] ;
5 -> 7 ;
8 [label="X[3] <= 10.605\ngini = 0.542\nsamples = 90\nvalue = [0, 7, 59, 9, 8, 6, 1]"] ;
0 -> 8 [labeldistance=2.5, labelangle=-45, headlabel="False"] ;
9 [label="X[3] <= 4.155\ngini = 0.19\nsamples = 66\nvalue = [0, 7, 59, 0, 0, 0, 0]"] ;
8 -> 9 ;
10 [label="X[2] <= 3.615\ngini = 0.484\nsamples = 17\nvalue = [0, 7, 10, 0, 0, 0, 0]"] ;
9 -> 10 ;
11 [label="X[0] <= 4.995\ngini = 0.42\nsamples = 10\nvalue = [0, 7, 3, 0, 0, 0, 0]"] ;
10 -> 11 ;
12 [label="gini = 0.0\nsamples = 7\nvalue = [0, 7, 0, 0, 0, 0, 0]"] ;
11 -> 12 ;
13 [label="gini = 0.0\nsamples = 3\nvalue = [0, 0, 3, 0, 0, 0, 0]"] ;
11 -> 13 ;
14 [label="gini = 0.0\nsamples = 7\nvalue = [0, 0, 7, 0, 0, 0, 0]"] ;
10 -> 14 ;
15 [label="gini = 0.0\nsamples = 49\nvalue = [0, 0, 49, 0, 0, 0, 0]"] ;
9 -> 15 ;
16 [label="X[3] <= 12.735\ngini = 0.684\nsamples = 24\nvalue = [0, 0, 0, 9, 8, 6, 1]"] ;
8 -> 16 ;
17 [label="gini = 0.0\nsamples = 9\nvalue = [0, 0, 0, 9, 0, 0, 0]"] ;
16 -> 17 ;
18 [label="X[3] <= 14.94\ngini = 0.551\nsamples = 15\nvalue = [0, 0, 0, 0, 8, 6, 1]"] ;
16 -> 18 ;
19 [label="gini = 0.0\nsamples = 8\nvalue = [0, 0, 0, 0, 8, 0, 0]"] ;
18 -> 19 ;
20 [label="X[5] <= 5.43\ngini = 0.245\nsamples = 7\nvalue = [0, 0, 0, 0, 0, 6, 1]"] ;
18 -> 20 ;
21 [label="gini = 0.0\nsamples = 6\nvalue = [0, 0, 0, 0, 0, 6, 0]"] ;
20 -> 21 ;
22 [label="gini = 0.0\nsamples = 1\nvalue = [0, 0, 0, 0, 0, 0, 1]"] ;
20 -> 22 ;
}